3001
-0.483571
0.468066
0.000000
-0.278499
0.024238
0.334239
-0.306908
-0.594143
0.071848
0.390907
0.048279
0.000000
-0.091728
-0.298599
-0.175898
0.184788
0.111384
0.096106
-0.374433
-0.020417
0.000000
0.000000
0.000000
0.000000
0.000000
0.101521
-0.210446
-0.118684
0.022709
0.000000
0.322449
-0.059875
-0.008263
0.103400
0.182202
0.000000
0.000000
0.009606
-0.061146
-0.003171
-0.066281
0.028315
-0.000375
0.053321
0.058396
0.058396
0.058396
0.058198
0.061915
-0.080528
-0.035369
0.055831
-0.008991
0.166331
0.148023
0.220709
0.090877
0.178230
0.000000
0.148862
0.126785
0.149085
0.149478
0.149478
0.149478
0.149185
0.265491
-0.101630
0.200518
-0.163612
0.000000
0.004422
0.134465
0.156462
0.000000
-0.011654
-0.113680
0.091142
-0.020535
-0.534647
0.020377
-0.008307
0.147913
0.026223
-0.087129
0.474531
0.392401
-0.014076
-0.393702
0.178040
-0.409851
0.000000
-0.036235
-0.016215
-0.286139
0.040753
0.039638
-0.003867
-0.085076
0.024330
0.000000
-0.404173
-0.025418
-0.047327
-0.116262
-0.117626
-0.359821
0.158006
-0.009188
-0.091545
0.013029
-0.015350
0.031722
-0.082607
0.000000
0.000000
0.133271
0.003341
0.293570
0.090755
0.042163
0.122267
0.001343
-0.056154
0.000000
-0.006068
-0.021105
0.088742
-0.204274
0.223897
0.062091
-0.011394
-0.060479
-0.074038
-0.238356
-0.003600
-0.042244
-0.119100
0.000000
-0.046407
-0.119548
-0.393851
-0.119774
-0.120296
-0.119736
-0.118858
-0.087212
-0.119774
-0.119774
-0.119774
-0.119793
-0.119793
-0.119793
-0.124660
0.139884
0.000000
0.070722
-0.017707
0.043478
0.000000
-0.020474
-0.085634
0.000000
0.000000
-0.005846
0.000000
0.072580
0.000000
0.211822
-0.209011
-0.045472
0.052695
-0.182265
0.162253
0.030037
0.000000
-0.036759
0.000000
0.000000
0.024221
-0.039125
-0.262761
-0.160262
0.320490
3.599997
0.006163
-0.010180
-0.039146
-0.191544
0.000000
-0.180974
0.285347
-0.243210
-0.157226
0.000000
0.234199
0.000000
0.000000
0.175434
0.075322
-0.008140
-0.227948
0.178152
0.178389
0.275276
-0.004006
0.000000
0.175217
0.175652
-0.168685
0.250242
-0.074898
0.013574
0.041930
0.089662
-0.200475
-0.062057
0.000000
-0.018023
0.000000
0.000000
-0.134222
-0.144152
0.233860
0.014705
0.137747
-0.169440
-0.054295
-0.090964
-0.061816
-0.077880
0.000000
0.263680
0.596612
0.002282
-0.166349
-0.106620
0.147241
0.367621
0.126422
0.081438
0.068791
-0.089764
-0.330062
0.000000
-0.000803
-0.091775
-0.218646
-0.019917
0.000000
-0.607897
-0.042031
-0.020171
-0.125089
0.005371
0.157691
0.000000
0.059206
-0.016979
0.035621
-0.085834
0.000000
0.000000
-0.323352
0.029017
0.000000
0.000000
0.070251
0.124424
-0.038945
0.042681
-0.049873
0.000000
0.000000
0.000000
0.000000
-0.066477
0.008641
0.089454
0.000000
0.000000
0.117862
-0.004461
0.154961
0.000000
0.098420
-0.001153
0.000000
0.149873
0.000000
0.000000
-0.020221
0.000000
0.002288
0.159217
0.006676
0.032576
0.000000
0.189800
-0.113129
-0.088299
0.000000
0.000000
-0.039893
0.000000
-0.083817
0.014551
0.000000
-0.119187
0.020030
-0.001067
0.000000
0.358712
0.009574
0.076553
0.000000
0.000000
-0.001620
0.000000
-0.702883
0.009587
-0.009792
0.000000
0.000000
0.000000
0.000000
0.237501
0.000000
-0.008207
-0.073867
0.000000
0.000000
-0.091879
-0.057211
0.189930
0.009545
0.040500
1.022482
0.000000
0.000000
0.101628
-0.183693
-0.060406
-0.042156
0.000000
0.000000
-0.049545
0.000000
0.427380
0.007148
0.244096
0.155091
0.000000
0.000000
0.082813
0.115290
-0.401197
0.080297
-0.001223
-0.000718
-0.332963
0.000000
-0.165392
-0.112985
0.000000
0.005997
-1.633325
0.000000
-0.017320
-0.248825
0.000000
0.000000
-0.275776
-0.004635
-0.010568
-0.263063
0.140284
0.000000
0.111997
0.621750
-0.276661
-0.051936
-0.003436
0.000000
-0.081618
0.177338
-0.140696
0.217876
-0.075650
0.000000
0.000000
0.350059
0.017158
0.000000
-0.125806
0.184976
0.044340
0.512893
0.000000
0.026063
-0.146561
-0.266806
-0.050135
0.190935
0.000000
-0.074681
-0.039901
0.000000
0.133635
0.000000
-0.144943
0.109201
0.000000
0.000000
-0.062967
0.010740
-0.002191
0.000000
0.033250
0.005805
-0.129364
-0.003938
0.010749
0.000000
0.000000
0.066622
-0.190851
0.000000
0.035228
-0.167132
-0.387458
0.046204
0.044928
-0.025255
0.000000
-0.212391
0.167124
0.033567
0.022064
0.000000
0.243485
-0.015915
-0.137357
0.000000
-0.138309
-0.112601
-0.080627
0.148154
-0.148798
-0.139818
0.004041
-0.002351
-0.011875
0.000000
-0.109628
0.293721
-0.137975
-0.138242
0.000000
0.036736
-0.138578
-0.018672
0.130397
0.000000
0.058749
0.220678
-0.078665
-0.182536
-0.024488
-0.252311
0.000000
0.000000
-0.133708
-0.100665
-0.017360
0.000000
-0.004666
0.028291
-0.013076
-0.000846
0.000000
0.130375
-0.037029
0.000000
0.100480
-0.059877
-0.076069
0.000000
0.000000
-0.010155
0.000000
0.000000
0.211682
0.000000
0.000000
0.000000
0.026781
0.000000
-0.125027
0.000000
-0.063297
0.000000
0.123120
0.000000
0.044126
0.044978
0.082329
0.001041
-0.075436
-0.044652
0.025415
0.120139
-0.508004
-0.756483
0.045642
-0.049571
-0.126695
-0.061530
-0.095373
-0.095373
-0.084632
0.000000
0.000000
0.186827
-0.058125
0.000134
-0.207306
0.000000
0.000000
0.000000
0.000000
0.000000
-0.175860
0.336020
0.000000
-0.326256
0.400138
0.326828
0.000000
-0.002018
-0.007172
0.195602
0.058134
-0.038773
-0.037680
-0.346697
0.461502
0.063702
0.000000
0.000000
0.000000
-0.305584
0.059272
-0.058524
0.046749
-0.003971
0.013509
0.013509
0.013509
0.013509
0.000000
0.000000
0.000000
-0.055814
-0.004841
0.092253
0.000000
0.125227
0.090829
-0.077513
-0.006326
-0.021426
0.000000
-0.039550
-0.049526
0.000000
-0.073723
-0.025473
-0.032364
0.000000
0.000000
-0.002693
0.093515
0.093620
0.093620
0.093620
0.000000
0.000000
0.000000
0.000000
-0.329247
0.006336
0.000000
-0.290427
0.045246
0.000000
0.000000
0.000000
0.000000
0.000000
0.023570
0.000000
0.000000
0.004962
-0.023263
0.000000
0.173256
0.000000
-0.210072
0.008320
0.684354
0.000000
0.111210
0.039965
0.130118
0.024487
0.139382
-0.000838
-0.014255
0.000000
0.000000
0.145145
-0.033076
0.000000
-0.219441
0.000000
-0.082056
-0.174008
0.000000
0.025507
0.000000
0.016461
0.049997
0.000000
-0.179168
-0.000787
0.000000
-0.145218
0.000000
0.859314
0.000000
0.000000
0.000000
-0.042103
-0.059716
0.041857
-0.069340
0.000000
-0.004566
-0.159392
0.015395
0.337882
-0.040837
-0.138798
-0.060155
-0.120980
0.000000
0.000000
0.000000
1.639541
-0.121137
0.144528
-0.032039
-0.020201
-0.078127
-0.296265
-0.079630
0.041862
-0.086088
0.016552
-0.104185
-0.108396
0.000000
0.000000
-0.122226
-0.001985
0.019394
-0.118105
-0.044970
0.000000
0.011641
0.000000
0.110347
-0.027928
0.002747
0.000000
0.000000
-0.021539
0.000000
-0.051348
0.000000
0.000000
0.000000
0.163731
0.019869
-0.051278
0.082763
0.000000
-0.160401
-0.069157
-0.028496
0.021255
0.000000
0.000000
-0.036564
-0.003962
0.000000
-0.021191
-0.030815
0.049686
0.135644
0.015514
-0.015930
-0.090245
-0.170362
-0.053501
0.007651
0.000000
0.000000
-0.372069
0.026878
-0.221557
0.123301
0.002259
-0.069182
-0.035997
0.000000
0.000000
-0.169132
0.113115
0.000000
0.218164
0.000000
0.000000
0.000000
0.061166
-0.522760
0.000000
0.000000
0.000000
0.000000
0.021432
0.000000
0.270859
0.107254
0.125178
0.006649
0.131973
-0.245706
-0.101424
-0.018789
-0.092336
0.000000
-0.160707
-0.578290
-0.034332
-0.043371
0.000000
0.000077
-0.060922
0.090706
-0.116315
0.000000
0.000000
0.020089
-0.002341
-0.539401
-0.036419
0.000000
0.311702
0.118656
-0.216759
-0.108896
-0.106453
-0.106328
0.000000
-0.108010
-0.245014
0.037544
0.037544
0.000000
-0.109105
-0.019892
-0.108896
0.002781
-0.008231
-0.109245
0.043890
-0.069922
0.000000
-0.066124
-0.175358
-0.014960
-0.006247
-0.143461
0.071677
0.000000
-0.135315
0.000000
0.000000
0.000000
0.057408
0.005556
0.000000
-0.002760
0.000000
-0.003232
0.000000
-0.164414
0.103505
0.206169
-0.112252
0.000000
0.026845
0.144057
-0.113019
0.000000
0.103736
0.000000
0.091903
-0.066800
0.051879
0.000000
-0.062601
0.000000
0.000000
0.000000
0.000000
0.027726
-0.020092
-0.000826
0.089252
-0.032041
0.078022
-0.033514
-0.046429
0.000000
0.097235
0.090911
0.000000
0.013673
-0.225792
-0.095391
0.091035
0.091035
0.040222
0.000000
-0.064948
0.135265
0.000000
0.000000
-0.017197
-0.111087
0.080880
0.000000
0.000000
0.000000
0.000000
-0.032802
0.000000
0.000000
-0.134661
-0.016243
0.025642
-0.022474
0.037949
-0.072861
-0.027435
-0.000737
0.000000
0.000000
0.000000
0.106714
0.020266
0.000000
0.000000
0.000000
-0.408807
0.000000
0.045037
-0.001913
0.000000
-0.055510
0.021243
0.000000
0.000000
0.000000
0.000000
0.000000
0.000000
0.000000
0.000000
0.201452
-0.038776
0.046770
0.020544
0.000000
1.549873
-0.066598
0.000000
0.000000
-0.014523
-0.006868
0.329762
0.000000
-0.028268
-0.010961
0.141686
-0.175293
0.000000
0.000000
-0.001048
0.015390
-0.035510
0.000000
-0.426899
0.000000
0.000000
0.000000
-0.035998
-0.035998
0.000000
0.000000
0.000000
0.092847
0.010829
-0.165337
0.000000
-0.086019
-0.027836
0.004188
-0.009569
0.000000
-0.054824
0.015449
0.000000
0.003773
-0.027966
0.000000
0.000000
0.000000
0.000000
0.000000
-0.052252
-0.024945
-0.157305
0.000000
0.085029
0.469808
-0.196579
-0.014728
0.014689
0.000000
0.161058
0.033729
0.000547
-0.208639
-0.041787
0.000000
0.276619
0.000000
-0.097658
0.000000
0.095071
0.090110
-0.399923
-0.194322
0.000000
0.012509
0.000000
0.000000
0.000000
0.000000
0.096178
0.000000
0.000000
0.000000
0.423692
0.000000
-0.189951
-0.015877
-0.125119
0.213138
0.163612
-0.083217
0.000000
0.057698
-0.077511
-0.340247
-0.046355
0.000000
0.000000
0.000000
0.000000
0.000000
0.000000
0.000000
-0.041208
0.000000
0.000000
-0.003037
0.000000
0.000000
0.936768
0.000000
0.000000
0.096684
-0.042015
0.110915
-0.108059
-0.044065
0.000000
0.000000
0.064529
0.013310
0.063390
0.173372
0.173372
0.000000
-0.026662
-0.021429
0.121156
-0.217881
-0.062211
-0.103791
-0.004235
-0.018147
0.426594
-0.101290
0.000000
0.030884
-0.003523
0.000000
-0.317016
-0.263181
0.356468
0.000000
0.000000
0.000000
0.174048
0.000000
0.072408
0.000000
0.051411
0.003017
0.000000
0.078451
-0.052871
0.023033
0.043001
0.000000
0.000000
0.000000
-0.028691
0.000000
0.000000
-0.004936
0.000000
0.859863
0.000000
0.045482
-0.125098
0.000000
0.000000
0.020374
0.240139
-0.020736
0.000000
-0.185474
-0.006596
-0.078242
0.000000
0.000000
0.132724
-0.040586
-0.098597
0.132373
0.000000
-0.028441
-0.030941
0.000000
0.000000
0.000000
0.000000
0.000000
0.000000
-0.021477
0.000000
0.000000
0.195826
-0.012785
0.230486
-0.022802
-0.111816
0.120200
0.120061
0.000000
-0.040174
0.000000
-0.054855
-0.059278
0.000000
-0.075623
0.077194
-0.063374
0.204738
-0.054261
0.000000
0.033252
-0.056134
0.000000
0.000000
0.000000
0.000000
0.000000
0.000000
0.000000
0.000000
0.119837
-0.050314
-0.018457
0.044788
-0.209879
0.000000
0.000000
0.055426
0.000000
0.000000
-0.006931
0.290203
0.000000
0.080600
0.000000
-0.029805
0.123157
0.000000
0.000000
0.000000
0.122127
0.000000
0.000000
0.038135
-0.088809
0.000000
0.000000
0.000000
0.000000
0.000000
0.000000
0.000000
-0.060318
-0.005763
-0.066351
0.000000
0.022525
0.000000
-0.054813
-0.080359
-0.005508
-0.315730
0.000000
-0.112939
0.043823
-0.301402
0.000000
0.026098
0.000000
-0.060413
0.000000
0.000000
0.000000
-0.012066
0.086909
0.018286
0.007789
0.000000
0.000000
0.000000
0.071196
0.091018
0.000000
-0.017094
-0.121394
-0.070448
0.000000
-0.126398
-0.015611
0.000000
0.000000
-0.054617
-0.256698
0.000000
-0.089060
0.000000
0.090387
0.000000
0.000000
-0.003550
0.000000
0.000000
-0.048762
0.026189
-0.012809
-0.201020
-0.047700
0.000000
0.000000
0.031378
-0.085164
0.054992
-0.010716
-0.004905
-0.185056
0.000000
0.000000
0.027847
0.000000
0.000000
0.000000
-0.000053
0.000000
0.001315
0.000000
0.000290
0.000000
0.000000
-0.009229
0.001413
0.000000
0.000000
-0.007471
0.000000
-0.132929
-0.021496
0.000000
0.000000
0.000000
0.000000
0.000000
0.279977
0.063637
0.000000
0.000000
0.005634
0.000000
0.131813
-0.019559
-0.015892
0.000000
0.000000
-0.354281
-0.065674
0.000000
0.062435
-0.019203
0.000000
0.000000
-0.051532
-0.128170
0.153355
-0.051650
-0.056919
0.032822
0.021594
-0.044204
0.000000
-0.008707
0.163465
0.000000
0.000000
0.000434
-0.058699
0.000000
0.071658
0.000000
0.000000
0.000000
0.000000
0.316775
0.017672
-0.080654
0.173472
-0.020877
0.000000
0.012898
0.000000
0.000000
0.071222
0.000000
0.000000
0.000000
-0.080118
0.000000
0.403651
-0.048178
-0.000733
-0.043598
0.167181
-0.002279
0.068071
-0.176256
0.000000
0.000000
0.141606
0.000000
0.102807
0.000000
-0.007419
0.000000
-0.035963
-0.184756
0.000000
0.000000
0.259152
-0.042536
0.100547
0.000000
-0.000059
-0.018902
0.000000
-0.154386
0.000000
0.000000
0.000000
-0.003370
0.000000
0.000000
0.000000
0.000000
0.000000
0.000000
0.000000
0.014865
-0.022110
-0.066041
0.169227
0.000000
1.008781
0.134076
-0.015954
0.000000
0.328991
-0.338841
-0.260287
0.006357
0.000000
0.039036
0.000000
0.000000
0.008800
-0.037299
-0.445903
-0.070964
0.017634
0.000000
-0.014282
-0.083161
0.000000
0.000000
0.000000
0.000000
-0.072265
0.000000
0.000000
0.000000
0.000000
0.000000
0.000000
0.000000
0.147459
0.109834
0.000000
-0.067761
-0.002081
0.000000
-0.008383
0.000000
0.000000
0.000000
0.000000
0.000000
-0.147362
0.000000
-0.018045
-0.009560
0.000000
0.008146
0.000000
0.000000
0.000000
-0.004702
0.384699
-0.237725
0.113547
-0.241406
0.000000
0.000000
0.000000
-0.004425
-0.217307
0.052450
-0.020404
0.000000
0.000000
-0.021423
0.000000
0.046331
0.022668
0.000000
-0.000553
-0.007831
0.084036
0.088263
0.077110
-0.814914
0.000000
0.037086
-0.017766
-0.014381
-0.001587
0.011696
0.254259
-0.065479
0.000000
0.027580
-0.151665
-0.085270
0.259918
0.000000
0.000000
0.022360
-0.001204
0.000000
0.000000
-0.069785
0.027735
0.000000
0.124608
0.000000
-0.039723
0.000000
0.012906
0.000000
0.000000
0.000000
0.149897
0.054127
0.000000
0.000000
0.000000
-0.089377
0.000000
0.000000
-0.130750
0.000000
0.000000
0.000000
-0.338176
0.000000
0.000000
0.000000
0.000000
0.000000
-0.040092
0.000000
0.028384
0.028206
0.000000
0.000000
0.000000
0.065766
-0.165770
-0.093981
0.000000
0.073251
-0.213619
0.041322
0.000000
0.000000
0.007837
0.000000
0.307497
-0.153372
-0.088477
0.000000
0.000000
0.000000
0.000000
0.000000
0.000000
0.000000
-0.004467
0.017183
0.005852
0.000000
-0.013209
0.000000
0.013610
0.000000
0.000000
0.143726
-0.417217
0.000000
3.032804
0.096054
-0.345746
-2.072355
0.630394
-0.105699
-0.076055
-0.193807
0.000000
-0.744694
0.817599
-0.480119
0.388539
-0.260389
-0.185252
-0.511142
0.010900
0.000000
0.000000
0.000000
0.000000
0.000000
-0.062506
-1.650214
-0.169438
-0.600884
0.000000
-0.487547
0.089597
-0.670321
-0.008001
-0.038145
0.000000
0.000000
-0.125027
-1.881543
0.178493
0.178811
0.012318
0.028996
-0.012772
-0.012286
-0.012286
-0.012286
-0.012244
-0.024782
0.662096
-0.196699
-0.105118
0.001233
-0.080074
-0.018707
-0.171473
-0.029258
-0.207340
0.000000
-0.118346
-0.050694
-0.126521
-0.118836
-0.118836
-0.118836
-0.118603
-0.153166
-1.629048
-0.231561
0.056069
0.000000
-0.159933
-0.140053
0.008634
0.000000
-0.432437
-0.479245
-0.526380
0.024040
0.112482
-0.232341
-0.376445
0.011518
-0.301483
0.477068
-0.397428
-0.365869
0.312319
0.959546
-0.125926
0.453519
0.000000
0.349311
-0.343774
0.459053
-0.182140
-0.705609
-0.034831
-0.286748
-0.643795
0.000000
0.478732
-1.238357
0.496746
0.100300
-0.552888
0.460418
-0.939284
-0.101389
0.507434
-0.143970
0.017884
0.392957
0.208803
0.000000
0.000000
0.000236
0.177890
-0.060068
-0.065328
-0.062626
-0.371819
-0.001252
0.244285
0.000000
-0.062521
-0.617647
-0.434490
0.137019
-0.351091
0.014968
-0.188664
0.235502
0.058192
0.555931
-0.039727
0.421509
0.102748
0.000000
-0.272952
0.103135
0.666491
0.103330
0.103823
0.103298
0.102540
-0.044675
0.103330
0.103330
0.103330
0.103346
0.103346
0.103346
0.080598
-0.049822
0.000000
-0.093827
-0.036100
0.002083
0.000000
-0.047934
-0.357608
0.000000
0.000000
0.181907
0.000000
0.127420
-0.600349
-0.152689
-0.227480
-0.441683
-0.620945
0.525251
0.113406
0.025871
0.000000
0.002298
0.000000
0.000000
-0.021269
-0.278178
1.137998
0.391639
-0.728378
-2.536900
-0.019365
-0.065718
0.140586
0.735547
0.000000
-0.915741
-0.670772
0.403447
0.407111
0.000000
-0.664180
0.000000
0.000000
-0.165604
-0.022245
0.080337
1.082121
-0.168170
-0.168394
-0.621180
0.283812
0.000000
-0.165400
-0.165810
-1.037071
-0.376998
0.003962
-0.389835
-0.617738
-0.347262
0.372114
-0.157118
0.000000
-0.090660
0.000000
0.000000
0.043843
0.201527
-0.587682
-0.093953
-0.089952
-0.070940
0.154970
0.442704
0.144283
-0.955103
0.000000
-0.420827
0.108309
-0.032332
0.685254
0.166443
0.325397
-0.457205
-0.066620
-0.674968
-0.085503
0.112427
0.718403
0.000000
-0.008862
0.287376
0.068608
-0.054888
0.000000
0.868549
0.004900
-0.237063
0.204589
-0.053726
-0.266787
0.000000
0.350873
0.206654
0.166529
0.362472
0.000000
0.000000
0.228691
0.066775
0.000000
0.000000
-0.168313
-0.013133
0.019609
0.107806
0.028794
0.000000
0.000000
0.000000
0.000000
-0.086102
-0.011661
0.049915
0.000000
0.000000
-0.005440
0.555511
-0.028759
0.000000
0.128844
-0.005706
0.000000
-0.020978
0.000000
0.000000
-0.152488
0.000000
-0.049213
-0.068314
0.111436
0.034723
0.000000
-0.306419
0.345332
0.105109
0.000000
0.000000
0.629187
0.000000
-0.576725
-0.102394
0.000000
0.237783
-0.194736
-0.011775
0.000000
-0.044972
-0.030910
-0.401705
0.000000
0.000000
-0.015921
0.000000
4.415686
0.490973
-0.103630
0.000000
0.000000
0.000000
0.000000
-0.383047
0.000000
-0.330257
-0.149740
0.000000
0.000000
-0.601674
0.051712
-0.548831
0.364274
-0.183819
-2.216844
0.000000
0.000000
-0.074205
0.188655
0.747969
-0.563220
0.000000
0.000000
-0.737297
0.000000
0.146652
-0.163432
-0.383127
-0.093240
0.000000
0.000000
-0.138663
-0.082017
0.960438
-0.095648
-0.030074
-0.020712
0.956256
0.000000
1.104613
0.101726
0.000000
-0.071926
4.574753
0.000000
-0.092497
1.612998
0.000000
0.000000
1.039292
-0.018486
-0.048724
0.325066
-0.875698
0.000000
-0.104850
-0.101326
-0.412699
-0.087228
0.855121
0.000000
-0.041530
0.152601
-0.111226
-0.348376
-0.087140
0.000000
0.000000
-0.448164
-0.017813
0.000000
0.404572
-0.156985
-0.354127
-0.407379
0.000000
-0.036491
-0.390939
0.309223
-0.263923
-0.097957
0.000000
-0.407109
-0.113328
0.000000
-0.275694
0.000000
0.435711
-0.632284
0.000000
0.000000
0.151923
-0.040230
-0.038590
0.000000
-0.200590
0.071353
0.019292
-0.016194
-0.049240
0.000000
0.000000
-1.066441
0.155604
0.000000
0.090228
0.788752
0.796508
-0.235198
-0.015750
0.382344
0.000000
0.338150
-0.084561
0.121384
-0.069293
0.000000
0.389730
0.003784
0.089594
0.000000
-0.098481
-0.046122
0.042401
-0.389034
0.179105
0.020852
-0.027582
0.245539
-0.619705
0.000000
-0.006908
-0.470156
0.225665
0.226101
0.000000
-0.344988
0.226652
-0.133964
-0.483877
0.000000
-0.119883
-0.258409
-0.135987
1.672685
-0.071022
-0.034586
0.000000
0.000000
0.263136
0.125497
-0.085808
0.000000
-0.089348
0.000707
0.252964
-0.113456
0.000000
0.126146
-0.114091
0.000000
-0.105952
0.346277
-0.195668
0.000000
0.000000
0.106229
0.000000
0.000000
0.210397
0.000000
0.000000
0.000000
-0.525817
0.000000
0.466094
0.000000
-0.224132
0.000000
0.057926
0.000000
-0.009274
-0.165889
-0.385286
-0.029579
-0.127785
0.182122
-0.122775
-0.306609
0.627389
6.806556
-0.057412
-0.049916
0.368172
-0.173569
0.262302
0.262302
-0.274901
0.000000
0.000000
-0.412920
-0.597195
-0.143146
0.271171
0.000000
0.000000
0.000000
0.000000
0.000000
0.188898
-0.302903
0.000000
0.929826
-0.085242
-0.415716
0.000000
-0.009989
-0.293242
-0.429052
0.066529
0.033903
-0.287304
-0.512925
-0.503602
-0.289157
0.000000
0.000000
0.000000
-0.176828
-0.079643
-0.196106
-0.076133
0.056123
-0.261259
-0.261259
-0.261259
-0.261259
0.000000
0.000000
0.000000
0.128446
-0.126532
-0.116026
0.000000
-0.030375
-0.183643
0.521429
-0.049681
-0.163586
0.000000
-0.456296
0.064657
0.000000
-1.534848
0.171318
-0.116034
0.000000
0.000000
-0.026013
-0.117613
-0.117744
-0.117744
-0.117744
0.000000
0.000000
0.000000
0.000000
0.810678
0.022917
0.000000
0.705937
0.442185
0.000000
0.000000
0.000000
0.000000
0.000000
-0.137528
0.000000
0.000000
-0.496801
-0.207897
0.000000
0.089899
0.000000
0.350370
-0.026141
0.435947
0.000000
-0.234684
-0.320064
-0.207724
-0.269003
0.269205
0.749431
-0.010703
0.000000
0.000000
-0.313497
0.036731
0.000000
0.148238
0.000000
0.081219
0.194626
0.000000
-0.042955
0.000000
0.002542
0.143467
0.000000
0.534895
0.004886
0.000000
0.306399
0.000000
-0.972988
0.000000
0.000000
0.000000
-0.115178
-0.064217
-0.200176
-0.375706
0.000000
0.309819
0.018320
0.278527
-0.289481
0.475358
-0.039243
-0.514549
-0.799494
0.000000
0.000000
0.000000
-0.311408
0.709406
0.003918
0.153830
0.504557
-0.286027
1.695994
0.043183
0.241326
-0.064742
-0.017633
0.340663
-0.029396
0.000000
0.000000
-0.211668
0.163972
0.520113
1.854154
-0.015298
0.000000
-0.170055
0.000000
-0.111988
0.023036
0.012390
0.000000
0.000000
-0.233736
0.000000
-0.092797
0.000000
0.000000
0.000000
-0.153970
-0.048719
-0.413843
-0.251108
0.000000
-0.154555
0.218604
-0.138793
-0.280241
0.000000
0.000000
-0.040649
-0.017726
0.000000
0.066660
0.216067
0.010307
-0.424834
-0.094800
0.096838
0.137259
0.439627
-0.000549
-0.024039
0.000000
0.000000
1.320981
0.200561
0.297528
-0.207287
-0.094505
0.269232
0.274947
0.000000
0.000000
-0.256401
-0.047134
0.000000
-0.270361
0.000000
0.000000
0.000000
-0.255130
1.846899
0.000000
0.000000
0.000000
0.000000
-0.282568
0.000000
-0.112088
-0.168289
-0.187516
0.534520
-0.135169
1.029155
0.060300
-0.059687
0.057237
0.000000
0.221843
0.800969
-0.173660
0.071668
0.000000
-0.040522
0.036165
-0.394046
-0.043311
0.000000
0.000000
-0.175146
0.135800
1.135441
0.097396
0.000000
-0.095000
-0.046213
0.160213
0.088116
0.063970
0.086038
0.000000
0.087399
0.557661
-0.073942
-0.073942
0.000000
0.088285
0.004730
0.088116
-0.156272
-0.176291
0.088399
-0.224853
0.203846
0.000000
-0.254223
0.637771
-0.353506
-0.120445
0.282330
-0.273039
0.000000
-0.092298
0.000000
0.000000
0.000000
-0.086251
-0.143615
0.000000
-0.012037
0.000000
-0.014096
0.000000
-0.074417
-0.037427
0.790380
0.354799
0.000000
-0.035602
-0.155509
0.124788
0.000000
-0.037511
0.000000
-0.309876
0.547464
-0.052806
0.000000
0.189788
0.000000
0.000000
0.000000
0.000000
-0.059028
0.040557
-0.194046
-0.029071
0.014280
-0.039241
-0.069945
-0.184119
0.000000
-0.131224
-0.029612
0.000000
-0.455137
0.184885
0.118449
-0.029652
-0.029652
1.525314
0.000000
0.704597
0.057662
0.000000
0.000000
-0.217973
1.655015
0.254845
0.000000
0.000000
0.000000
0.000000
-0.063347
0.000000
0.000000
-0.143962
-0.129615
-0.796369
0.216965
0.129336
0.150674
-0.495661
-0.008130
0.000000
0.000000
0.000000
0.740130
-0.401968
0.000000
0.000000
0.000000
0.489844
0.000000
-0.183391
-0.093259
0.000000
-0.057903
0.120335
0.000000
0.000000
0.000000
0.000000
0.000000
0.000000
0.000000
0.000000
0.103214
-0.082760
-0.136945
-0.010945
0.000000
-1.014835
0.870350
0.000000
0.000000
-0.124194
-0.079205
0.352928
0.000000
0.023091
-0.097463
0.007556
0.032397
0.000000
0.000000
0.354304
-0.338901
-0.068576
0.000000
0.556218
0.000000
0.000000
0.000000
-0.069519
-0.069519
0.000000
0.000000
0.000000
0.007911
0.041812
0.297247
0.000000
0.354016
-0.092481
0.161240
0.097169
0.000000
-0.006254
-0.250613
0.000000
-0.161197
0.262628
0.000000
0.000000
0.000000
0.000000
0.000000
-0.345310
-0.030570
0.307704
0.000000
-0.089894
-0.467697
0.407718
-0.330312
-0.152977
0.000000
-0.117850
-0.236245
-0.019194
0.026742
-0.312931
0.000000
-0.405082
0.000000
0.135068
0.000000
-0.208538
0.604419
-0.303718
0.547795
0.000000
-0.088844
0.000000
0.000000
0.000000
0.000000
-0.210966
0.000000
0.000000
0.000000
2.997787
0.000000
0.108591
0.032796
0.166581
-0.177633
-0.186128
-0.003088
0.000000
-0.059900
-0.184547
0.435814
0.054808
0.000000
0.000000
0.000000
0.000000
0.000000
0.000000
0.000000
0.154127
0.000000
0.000000
-0.013244
0.000000
0.000000
-1.306947
0.000000
0.000000
0.023087
0.171101
0.044285
0.013360
-0.189962
0.000000
0.000000
0.037146
-0.114140
-0.004419
-0.126860
-0.126860
0.000000
0.394698
0.059507
0.611076
0.485066
0.083661
0.155328
0.117069
0.343134
2.048431
0.084126
0.000000
-0.009533
0.356657
0.000000
0.602833
0.697375
-0.463894
0.000000
0.000000
0.000000
-0.409754
0.000000
0.219359
0.000000
-0.040688
-0.049945
0.000000
0.002102
0.141947
0.037586
0.229760
0.000000
0.000000
0.000000
-0.326559
0.000000
0.000000
-0.020688
0.000000
-0.789609
0.000000
0.010307
0.486421
0.000000
0.000000
-0.265047
0.005290
-0.243700
0.000000
0.034279
-0.145433
0.209531
0.000000
0.000000
-0.086583
-0.497372
0.265576
-0.146283
0.000000
-0.340902
0.012354
0.000000
0.000000
0.000000
0.000000
0.000000
0.000000
-0.253620
0.000000
0.000000
0.133820
-0.215984
-0.400673
-0.107013
0.201637
-0.153927
-0.157605
0.000000
-0.087800
0.000000
-0.086484
-0.383912
0.000000
0.018912
0.106539
-0.253156
-0.124837
-0.358586
0.000000
-0.204780
-1.772361
0.000000
0.000000
0.000000
0.000000
0.000000
0.000000
0.000000
0.000000
-0.073667
0.173094
0.648277
-0.089975
0.566953
0.000000
0.000000
0.031072
0.000000
0.000000
-0.031667
-0.025873
0.000000
0.175596
0.000000
-0.304338
-0.075708
0.000000
0.000000
0.000000
-0.075075
0.000000
0.000000
-0.196816
0.097152
0.000000
0.000000
0.000000
0.000000
0.000000
0.000000
0.000000
0.019708
-0.158024
0.073503
0.000000
0.092133
0.000000
-0.297158
-0.191328
-0.159348
0.919944
0.000000
0.104064
0.021388
0.199203
0.000000
-0.088593
0.000000
-0.399237
0.000000
0.000000
0.000000
-0.057644
-0.009576
-0.012367
-0.024474
0.000000
0.000000
0.000000
-0.169323
0.068570
0.000000
-0.007926
0.124341
-0.131474
0.000000
0.027803
-0.366303
0.000000
0.000000
0.317727
0.173782
0.000000
-0.197111
0.000000
-0.081716
0.000000
0.000000
-0.015484
0.000000
0.000000
0.016792
-0.035956
-0.014618
0.932707
0.038444
0.000000
0.000000
-0.027082
-0.034900
-0.060324
-0.299920
0.003341
-0.039214
0.000000
0.000000
-0.028910
0.000000
0.000000
0.000000
-0.408979
0.000000
-0.022525
0.000000
-0.223315
0.000000
0.000000
-0.132629
0.098675
0.000000
0.000000
-0.094174
0.000000
-0.104360
-0.094160
0.000000
0.000000
0.000000
0.000000
0.000000
-0.065587
0.696471
0.000000
0.000000
0.123772
0.000000
-0.334470
0.216127
-0.207572
0.000000
0.000000
1.256824
-0.454552
0.000000
-0.033980
0.004566
0.000000
0.000000
0.162447
-0.162420
0.032542
0.157617
-0.339591
-0.060751
-0.237715
0.339321
0.000000
-0.114063
-0.030138
0.000000
0.000000
-0.228707
0.113535
0.000000
-0.066677
0.000000
0.000000
0.000000
0.000000
-0.367037
-0.682827
-0.192030
-0.488626
0.116342
0.000000
-0.107273
0.000000
0.000000
0.243511
0.000000
0.000000
0.000000
0.746267
0.000000
-0.489550
-0.896440
-0.021145
-0.119190
0.037240
-0.011279
0.231408
0.546197
0.000000
0.000000
0.128042
0.000000
-0.177594
0.000000
-0.126556
0.000000
-0.015300
1.122785
0.000000
0.000000
0.280234
0.016898
0.144620
0.000000
-0.028615
-0.108026
0.000000
0.193984
0.000000
0.000000
0.000000
-0.059353
0.000000
0.000000
0.000000
0.000000
0.000000
0.000000
0.000000
-0.306032
-0.112861
0.108995
-0.090727
0.000000
-1.205953
-0.042504
-0.199244
0.000000
-0.359709
0.388444
0.541189
-0.062086
0.000000
-0.020798
0.000000
0.000000
-0.027650
-0.058862
1.093772
0.777900
-0.019458
0.000000
-0.126234
0.111268
0.000000
0.000000
0.000000
0.000000
0.063900
0.000000
0.000000
0.000000
0.000000
0.000000
0.000000
0.000000
-0.018067
-0.240636
0.000000
-0.203683
0.171894
0.000000
-0.036559
0.000000
0.000000
0.000000
0.000000
0.000000
0.421284
0.000000
0.348297
-0.110247
0.000000
0.001156
0.000000
0.000000
0.000000
-0.020505
-0.031131
0.583147
-1.546179
0.344185
0.000000
0.000000
0.000000
-0.019300
-0.335081
-0.058155
-0.221204
0.000000
0.000000
0.183261
0.000000
0.201398
-0.105220
0.000000
0.252709
0.239618
0.253344
-0.009725
-0.048335
2.033344
0.000000
-0.074372
-0.009891
-0.159209
-0.043837
-0.082051
-0.183279
0.132594
0.000000
-0.091690
0.007143
0.113574
-0.505822
0.000000
0.000000
0.069047
-0.072200
0.000000
0.000000
-0.221087
-0.014294
0.000000
-0.253618
0.000000
0.028417
0.000000
-0.219746
0.000000
0.000000
0.000000
-0.153073
0.296061
0.000000
0.000000
-0.022466
-1.240086
0.000000
0.000000
-0.011011
0.000000
0.000000
0.000000
0.044097
0.000000
0.000000
0.000000
0.000000
0.000000
0.038650
0.000000
-0.029467
-0.041119
0.000000
0.000000
0.000000
-0.227264
0.183639
-0.032225
0.000000
-0.113949
0.062147
-0.320871
0.000000
0.000000
-0.024622
0.000000
0.020016
0.636161
0.441404
0.000000
0.000000
0.000000
0.000000
0.000000
0.000000
0.000000
-0.381690
-0.048933
0.063894
0.000000
-0.074916
0.000000
-0.267214
0.000000
0.000000
-0.154339
